digraph Tree {
node [shape=box, style="rounded", color="black", fontname=helvetica] ;
edge [fontname=helvetica] ;
0 [label="apparentTemperature <= 1559836.2\nmse = 1571857.4\nsamples = 7\nvalue = 2872.3"] ;
1 [label="Furnace <= 9717.1\nmse = 650302.9\nsamples = 3\nvalue = 1628.1"] ;
0 -> 1 [labeldistance=2.5, labelangle=45, headlabel="True"] ;
2 [label="mse = 0.0\nsamples = 1\nvalue = 830.8"] ;
1 -> 2 ;
3 [label="visibility <= 395055.5\nmse = 29304.8\nsamples = 2\nvalue = 2425.4"] ;
1 -> 3 ;
4 [label="mse = 0.0\nsamples = 1\nvalue = 2254.2"] ;
3 -> 4 ;
5 [label="mse = -0.0\nsamples = 1\nvalue = 2596.6"] ;
3 -> 5 ;
6 [label="House overall <= 47906.7\nmse = 80083.9\nsamples = 4\nvalue = 3867.6"] ;
0 -> 6 [labeldistance=2.5, labelangle=-45, headlabel="False"] ;
7 [label="windBearing <= 7627513.5\nmse = 16155.0\nsamples = 3\nvalue = 3651.0"] ;
6 -> 7 ;
8 [label="mse = 0.0\nsamples = 1\nvalue = 3486.4"] ;
7 -> 8 ;
9 [label="precipIntensity <= 102.1\nmse = 3912.2\nsamples = 2\nvalue = 3733.3"] ;
7 -> 9 ;
10 [label="mse = 0.0\nsamples = 1\nvalue = 3670.7"] ;
9 -> 10 ;
11 [label="mse = -0.0\nsamples = 1\nvalue = 3795.8"] ;
9 -> 11 ;
12 [label="mse = -0.0\nsamples = 1\nvalue = 4192.5"] ;
6 -> 12 ;
}